digraph Tree {
node [shape=box] ;
0 [label="satisfaction <= 0.465\ngini = 0.5\nsamples = 12749\nvalue = [6374.5, 6374.5]"] ;
1 [label="yearsAtCompany <= 4.5\ngini = 0.281\nsamples = 3565\nvalue = [921.33, 4538.812]"] ;
0 -> 1 [labeldistance=2.5, labelangle=45, headlabel="True"] ;
2 [label="yearsAtCompany <= 2.5\ngini = 0.206\nsamples = 2918\nvalue = [568.941, 4307.776]"] ;
1 -> 2 ;
3 [label="gini = 0.278\nsamples = 238\nvalue = [146.993, 29.405]"] ;
2 -> 3 ;
4 [label="projectCount <= 2.5\ngini = 0.163\nsamples = 2680\nvalue = [421.948, 4278.371]"] ;
2 -> 4 ;
5 [label="averageMonthlyHours <= 159.5\ngini = 0.047\nsamples = 1419\nvalue = [68.247, 2761.933]"] ;
4 -> 5 ;
6 [label="gini = 0.024\nsamples = 1311\nvalue = [32.155, 2650.616]"] ;
5 -> 6 ;
7 [label="gini = 0.37\nsamples = 108\nvalue = [36.092, 111.317]"] ;
5 -> 7 ;
8 [label="satisfaction <= 0.115\ngini = 0.307\nsamples = 1261\nvalue = [353.701, 1516.438]"] ;
4 -> 8 ;
9 [label="gini = 0.0\nsamples = 668\nvalue = [0.0, 1403.02]"] ;
8 -> 9 ;
10 [label="gini = 0.368\nsamples = 593\nvalue = [353.701, 113.418]"] ;
8 -> 10 ;
11 [label="satisfaction <= 0.115\ngini = 0.478\nsamples = 647\nvalue = [352.389, 231.036]"] ;
1 -> 11 ;
12 [label="gini = 0.0\nsamples = 76\nvalue = [0.0, 159.625]"] ;
11 -> 12 ;
13 [label="satisfaction <= 0.295\ngini = 0.28\nsamples = 571\nvalue = [352.389, 71.411]"] ;
11 -> 13 ;
14 [label="evaluation <= 0.705\ngini = 0.163\nsamples = 404\nvalue = [257.237, 25.204]"] ;
13 -> 14 ;
15 [label="gini = 0.247\nsamples = 200\nvalue = [124.681, 21.003]"] ;
14 -> 15 ;
16 [label="gini = 0.06\nsamples = 204\nvalue = [132.556, 4.201]"] ;
14 -> 16 ;
17 [label="gini = 0.44\nsamples = 167\nvalue = [95.152, 46.207]"] ;
13 -> 17 ;
18 [label="yearsAtCompany <= 4.5\ngini = 0.377\nsamples = 9184\nvalue = [5453.17, 1835.688]"] ;
0 -> 18 [labeldistance=2.5, labelangle=-45, headlabel="False"] ;
19 [label="yearsAtCompany <= 3.5\ngini = 0.085\nsamples = 7498\nvalue = [4849.45, 226.836]"] ;
18 -> 19 ;
20 [label="projectCount <= 2.5\ngini = 0.058\nsamples = 6318\nvalue = [4106.611, 126.02]"] ;
19 -> 20 ;
21 [label="evaluation <= 0.695\ngini = 0.239\nsamples = 355\nvalue = [221.802, 35.706]"] ;
20 -> 21 ;
22 [label="gini = 0.176\nsamples = 184\nvalue = [116.807, 12.602]"] ;
21 -> 22 ;
23 [label="gini = 0.296\nsamples = 171\nvalue = [104.995, 23.104]"] ;
21 -> 23 ;
24 [label="averageMonthlyHours <= 270.5\ngini = 0.044\nsamples = 5963\nvalue = [3884.81, 90.314]"] ;
20 -> 24 ;
25 [label="gini = 0.04\nsamples = 5762\nvalue = [3756.847, 77.712]"] ;
24 -> 25 ;
26 [label="gini = 0.163\nsamples = 201\nvalue = [127.962, 12.602]"] ;
24 -> 26 ;
27 [label="department <= 8.5\ngini = 0.21\nsamples = 1180\nvalue = [742.839, 100.816]"] ;
19 -> 27 ;
28 [label="satisfaction <= 0.825\ngini = 0.157\nsamples = 950\nvalue = [605.689, 56.709]"] ;
27 -> 28 ;
29 [label="gini = 0.205\nsamples = 637\nvalue = [401.605, 52.508]"] ;
28 -> 29 ;
30 [label="gini = 0.04\nsamples = 313\nvalue = [204.084, 4.201]"] ;
28 -> 30 ;
31 [label="gini = 0.368\nsamples = 230\nvalue = [137.15, 44.107]"] ;
27 -> 31 ;
32 [label="evaluation <= 0.805\ngini = 0.397\nsamples = 1686\nvalue = [603.72, 1608.852]"] ;
18 -> 32 ;
33 [label="department <= 7.5\ngini = 0.214\nsamples = 651\nvalue = [409.48, 56.709]"] ;
32 -> 33 ;
34 [label="yearsAtCompany <= 6.5\ngini = 0.117\nsamples = 492\nvalue = [316.297, 21.003]"] ;
33 -> 34 ;
35 [label="gini = 0.206\nsamples = 252\nvalue = [158.805, 21.003]"] ;
34 -> 35 ;
36 [label="gini = 0.0\nsamples = 240\nvalue = [157.492, 0.0]"] ;
34 -> 36 ;
37 [label="gini = 0.401\nsamples = 159\nvalue = [93.183, 35.706]"] ;
33 -> 37 ;
38 [label="averageMonthlyHours <= 215.5\ngini = 0.198\nsamples = 1035\nvalue = [194.24, 1552.143]"] ;
32 -> 38 ;
39 [label="gini = 0.349\nsamples = 192\nvalue = [115.494, 33.605]"] ;
38 -> 39 ;
40 [label="satisfaction <= 0.735\ngini = 0.094\nsamples = 843\nvalue = [78.746, 1518.538]"] ;
38 -> 40 ;
41 [label="gini = 0.412\nsamples = 120\nvalue = [44.623, 109.217]"] ;
40 -> 41 ;
42 [label="gini = 0.046\nsamples = 723\nvalue = [34.123, 1409.321]"] ;
40 -> 42 ;
}